digraph Tree {
node [shape=box] ;
0 [label="Sex <= 0.5\ngini = 0.473\nsamples = 891\nvalue = [549, 342]"] ;
1 [label="Age <= 6.5\ngini = 0.306\nsamples = 577\nvalue = [468, 109]"] ;
0 -> 1 [labeldistance=2.5, labelangle=45, headlabel="True"] ;
2 [label="SibSp <= 2.5\ngini = 0.444\nsamples = 24\nvalue = [8, 16]"] ;
1 -> 2 ;
3 [label="gini = 0.0\nsamples = 15\nvalue = [0, 15]"] ;
2 -> 3 ;
4 [label="Age <= 2.5\ngini = 0.198\nsamples = 9\nvalue = [8, 1]"] ;
2 -> 4 ;
5 [label="gini = 0.0\nsamples = 5\nvalue = [5, 0]"] ;
4 -> 5 ;
6 [label="Fare <= 31.331\ngini = 0.375\nsamples = 4\nvalue = [3, 1]"] ;
4 -> 6 ;
7 [label="gini = 0.0\nsamples = 3\nvalue = [3, 0]"] ;
6 -> 7 ;
8 [label="gini = 0.0\nsamples = 1\nvalue = [0, 1]"] ;
6 -> 8 ;
9 [label="Pclass <= 1.5\ngini = 0.28\nsamples = 553\nvalue = [460, 93]"] ;
1 -> 9 ;
10 [label="Fare <= 26.144\ngini = 0.46\nsamples = 120\nvalue = [77, 43]"] ;
9 -> 10 ;
11 [label="gini = 0.0\nsamples = 10\nvalue = [10, 0]"] ;
10 -> 11 ;
12 [label="Age <= 53.0\ngini = 0.476\nsamples = 110\nvalue = [67, 43]"] ;
10 -> 12 ;
13 [label="Fare <= 27.135\ngini = 0.495\nsamples = 89\nvalue = [49, 40]"] ;
12 -> 13 ;
14 [label="Fare <= 26.469\ngini = 0.26\nsamples = 13\nvalue = [2, 11]"] ;
13 -> 14 ;
15 [label="gini = 0.0\nsamples = 4\nvalue = [0, 4]"] ;
14 -> 15 ;
16 [label="Age <= 46.5\ngini = 0.346\nsamples = 9\nvalue = [2, 7]"] ;
14 -> 16 ;
17 [label="Age <= 40.0\ngini = 0.408\nsamples = 7\nvalue = [2, 5]"] ;
16 -> 17 ;
18 [label="Age <= 31.0\ngini = 0.32\nsamples = 5\nvalue = [1, 4]"] ;
17 -> 18 ;
19 [label="gini = 0.444\nsamples = 3\nvalue = [1, 2]"] ;
18 -> 19 ;
20 [label="gini = 0.0\nsamples = 2\nvalue = [0, 2]"] ;
18 -> 20 ;
21 [label="gini = 0.5\nsamples = 2\nvalue = [1, 1]"] ;
17 -> 21 ;
22 [label="gini = 0.0\nsamples = 2\nvalue = [0, 2]"] ;
16 -> 22 ;
23 [label="Fare <= 387.665\ngini = 0.472\nsamples = 76\nvalue = [47, 29]"] ;
13 -> 23 ;
24 [label="Fare <= 134.642\ngini = 0.463\nsamples = 74\nvalue = [47, 27]"] ;
23 -> 24 ;
25 [label="Age <= 27.5\ngini = 0.481\nsamples = 67\nvalue = [40, 27]"] ;
24 -> 25 ;
26 [label="Age <= 24.5\ngini = 0.426\nsamples = 13\nvalue = [4, 9]"] ;
25 -> 26 ;
27 [label="Parch <= 0.5\ngini = 0.49\nsamples = 7\nvalue = [4, 3]"] ;
26 -> 27 ;
28 [label="gini = 0.0\nsamples = 3\nvalue = [3, 0]"] ;
27 -> 28 ;
29 [label="Age <= 19.0\ngini = 0.375\nsamples = 4\nvalue = [1, 3]"] ;
27 -> 29 ;
30 [label="gini = 0.0\nsamples = 2\nvalue = [0, 2]"] ;
29 -> 30 ;
31 [label="Age <= 22.0\ngini = 0.5\nsamples = 2\nvalue = [1, 1]"] ;
29 -> 31 ;
32 [label="gini = 0.0\nsamples = 1\nvalue = [1, 0]"] ;
31 -> 32 ;
33 [label="gini = 0.0\nsamples = 1\nvalue = [0, 1]"] ;
31 -> 33 ;
34 [label="gini = 0.0\nsamples = 6\nvalue = [0, 6]"] ;
26 -> 34 ;
35 [label="Fare <= 115.442\ngini = 0.444\nsamples = 54\nvalue = [36, 18]"] ;
25 -> 35 ;
36 [label="Fare <= 29.1\ngini = 0.426\nsamples = 52\nvalue = [36, 16]"] ;
35 -> 36 ;
37 [label="gini = 0.0\nsamples = 5\nvalue = [5, 0]"] ;
36 -> 37 ;
38 [label="Fare <= 30.598\ngini = 0.449\nsamples = 47\nvalue = [31, 16]"] ;
36 -> 38 ;
39 [label="Parch <= 0.5\ngini = 0.408\nsamples = 7\nvalue = [2, 5]"] ;
38 -> 39 ;
40 [label="Fare <= 30.25\ngini = 0.278\nsamples = 6\nvalue = [1, 5]"] ;
39 -> 40 ;
41 [label="Age <= 28.5\ngini = 0.444\nsamples = 3\nvalue = [1, 2]"] ;
40 -> 41 ;
42 [label="gini = 0.0\nsamples = 2\nvalue = [0, 2]"] ;
41 -> 42 ;
43 [label="gini = 0.0\nsamples = 1\nvalue = [1, 0]"] ;
41 -> 43 ;
44 [label="gini = 0.0\nsamples = 3\nvalue = [0, 3]"] ;
40 -> 44 ;
45 [label="gini = 0.0\nsamples = 1\nvalue = [1, 0]"] ;
39 -> 45 ;
46 [label="SibSp <= 0.5\ngini = 0.399\nsamples = 40\nvalue = [29, 11]"] ;
38 -> 46 ;
47 [label="Fare <= 37.0\ngini = 0.266\nsamples = 19\nvalue = [16, 3]"] ;
46 -> 47 ;
48 [label="Fare <= 35.25\ngini = 0.469\nsamples = 8\nvalue = [5, 3]"] ;
47 -> 48 ;
49 [label="Age <= 34.0\ngini = 0.32\nsamples = 5\nvalue = [4, 1]"] ;
48 -> 49 ;
50 [label="gini = 0.0\nsamples = 3\nvalue = [3, 0]"] ;
49 -> 50 ;
51 [label="Age <= 43.5\ngini = 0.5\nsamples = 2\nvalue = [1, 1]"] ;
49 -> 51 ;
52 [label="gini = 0.0\nsamples = 1\nvalue = [0, 1]"] ;
51 -> 52 ;
53 [label="gini = 0.0\nsamples = 1\nvalue = [1, 0]"] ;
51 -> 53 ;
54 [label="Age <= 36.5\ngini = 0.444\nsamples = 3\nvalue = [1, 2]"] ;
48 -> 54 ;
55 [label="gini = 0.0\nsamples = 2\nvalue = [0, 2]"] ;
54 -> 55 ;
56 [label="gini = 0.0\nsamples = 1\nvalue = [1, 0]"] ;
54 -> 56 ;
57 [label="gini = 0.0\nsamples = 11\nvalue = [11, 0]"] ;
47 -> 57 ;
58 [label="Age <= 49.5\ngini = 0.472\nsamples = 21\nvalue = [13, 8]"] ;
46 -> 58 ;
59 [label="Age <= 47.0\ngini = 0.494\nsamples = 18\nvalue = [10, 8]"] ;
58 -> 59 ;
60 [label="Parch <= 0.5\ngini = 0.426\nsamples = 13\nvalue = [9, 4]"] ;
59 -> 60 ;
61 [label="Age <= 43.0\ngini = 0.375\nsamples = 12\nvalue = [9, 3]"] ;
60 -> 61 ;
62 [label="Age <= 37.5\ngini = 0.444\nsamples = 9\nvalue = [6, 3]"] ;
61 -> 62 ;
63 [label="Fare <= 61.8\ngini = 0.278\nsamples = 6\nvalue = [5, 1]"] ;
62 -> 63 ;
64 [label="Fare <= 55.05\ngini = 0.444\nsamples = 3\nvalue = [2, 1]"] ;
63 -> 64 ;
65 [label="gini = 0.0\nsamples = 2\nvalue = [2, 0]"] ;
64 -> 65 ;
66 [label="gini = 0.0\nsamples = 1\nvalue = [0, 1]"] ;
64 -> 66 ;
67 [label="gini = 0.0\nsamples = 3\nvalue = [3, 0]"] ;
63 -> 67 ;
68 [label="Fare <= 52.277\ngini = 0.444\nsamples = 3\nvalue = [1, 2]"] ;
62 -> 68 ;
69 [label="gini = 0.0\nsamples = 1\nvalue = [1, 0]"] ;
68 -> 69 ;
70 [label="gini = 0.0\nsamples = 2\nvalue = [0, 2]"] ;
68 -> 70 ;
71 [label="gini = 0.0\nsamples = 3\nvalue = [3, 0]"] ;
61 -> 71 ;
72 [label="gini = 0.0\nsamples = 1\nvalue = [0, 1]"] ;
60 -> 72 ;
73 [label="Fare <= 99.994\ngini = 0.32\nsamples = 5\nvalue = [1, 4]"] ;
59 -> 73 ;
74 [label="gini = 0.0\nsamples = 4\nvalue = [0, 4]"] ;
73 -> 74 ;
75 [label="gini = 0.0\nsamples = 1\nvalue = [1, 0]"] ;
73 -> 75 ;
76 [label="gini = 0.0\nsamples = 3\nvalue = [3, 0]"] ;
58 -> 76 ;
77 [label="gini = 0.0\nsamples = 2\nvalue = [0, 2]"] ;
35 -> 77 ;
78 [label="gini = 0.0\nsamples = 7\nvalue = [7, 0]"] ;
24 -> 78 ;
79 [label="gini = 0.0\nsamples = 2\nvalue = [0, 2]"] ;
23 -> 79 ;
80 [label="Age <= 75.5\ngini = 0.245\nsamples = 21\nvalue = [18, 3]"] ;
12 -> 80 ;
81 [label="Embarked <= 0.5\ngini = 0.18\nsamples = 20\nvalue = [18, 2]"] ;
80 -> 81 ;
82 [label="gini = 0.0\nsamples = 12\nvalue = [12, 0]"] ;
81 -> 82 ;
83 [label="SibSp <= 0.5\ngini = 0.375\nsamples = 8\nvalue = [6, 2]"] ;
81 -> 83 ;
84 [label="Age <= 57.0\ngini = 0.245\nsamples = 7\nvalue = [6, 1]"] ;
83 -> 84 ;
85 [label="Fare <= 33.098\ngini = 0.5\nsamples = 2\nvalue = [1, 1]"] ;
84 -> 85 ;
86 [label="gini = 0.0\nsamples = 1\nvalue = [1, 0]"] ;
85 -> 86 ;
87 [label="gini = 0.0\nsamples = 1\nvalue = [0, 1]"] ;
85 -> 87 ;
88 [label="gini = 0.0\nsamples = 5\nvalue = [5, 0]"] ;
84 -> 88 ;
89 [label="gini = 0.0\nsamples = 1\nvalue = [0, 1]"] ;
83 -> 89 ;
90 [label="gini = 0.0\nsamples = 1\nvalue = [0, 1]"] ;
80 -> 90 ;
91 [label="Fare <= 51.698\ngini = 0.204\nsamples = 433\nvalue = [383, 50]"] ;
9 -> 91 ;
92 [label="Age <= 13.0\ngini = 0.193\nsamples = 417\nvalue = [372, 45]"] ;
91 -> 92 ;
93 [label="SibSp <= 2.0\ngini = 0.444\nsamples = 12\nvalue = [8, 4]"] ;
92 -> 93 ;
94 [label="Age <= 10.0\ngini = 0.32\nsamples = 5\nvalue = [1, 4]"] ;
93 -> 94 ;
95 [label="gini = 0.0\nsamples = 3\nvalue = [0, 3]"] ;
94 -> 95 ;
96 [label="Fare <= 15.015\ngini = 0.5\nsamples = 2\nvalue = [1, 1]"] ;
94 -> 96 ;
97 [label="gini = 0.0\nsamples = 1\nvalue = [0, 1]"] ;
96 -> 97 ;
98 [label="gini = 0.0\nsamples = 1\nvalue = [1, 0]"] ;
96 -> 98 ;
99 [label="gini = 0.0\nsamples = 7\nvalue = [7, 0]"] ;
93 -> 99 ;
100 [label="Age <= 32.25\ngini = 0.182\nsamples = 405\nvalue = [364, 41]"] ;
92 -> 100 ;
101 [label="Age <= 30.75\ngini = 0.206\nsamples = 300\nvalue = [265, 35]"] ;
100 -> 101 ;
102 [label="Embarked <= 0.5\ngini = 0.185\nsamples = 282\nvalue = [253, 29]"] ;
101 -> 102 ;
103 [label="Fare <= 11.0\ngini = 0.147\nsamples = 213\nvalue = [196, 17]"] ;
102 -> 103 ;
104 [label="Age <= 27.5\ngini = 0.179\nsamples = 161\nvalue = [145, 16]"] ;
103 -> 104 ;
105 [label="Age <= 26.5\ngini = 0.217\nsamples = 97\nvalue = [85, 12]"] ;
104 -> 105 ;
106 [label="Fare <= 3.248\ngini = 0.175\nsamples = 93\nvalue = [84, 9]"] ;
105 -> 106 ;
107 [label="Age <= 22.0\ngini = 0.5\nsamples = 2\nvalue = [1, 1]"] ;
106 -> 107 ;
108 [label="gini = 0.0\nsamples = 1\nvalue = [1, 0]"] ;
107 -> 108 ;
109 [label="gini = 0.0\nsamples = 1\nvalue = [0, 1]"] ;
107 -> 109 ;
110 [label="SibSp <= 0.5\ngini = 0.16\nsamples = 91\nvalue = [83, 8]"] ;
106 -> 110 ;
111 [label="Age <= 19.5\ngini = 0.136\nsamples = 82\nvalue = [76, 6]"] ;
110 -> 111 ;
112 [label="Fare <= 7.973\ngini = 0.26\nsamples = 26\nvalue = [22, 4]"] ;
111 -> 112 ;
113 [label="gini = 0.0\nsamples = 10\nvalue = [10, 0]"] ;
112 -> 113 ;
114 [label="Fare <= 8.104\ngini = 0.375\nsamples = 16\nvalue = [12, 4]"] ;
112 -> 114 ;
115 [label="Age <= 17.0\ngini = 0.48\nsamples = 5\nvalue = [2, 3]"] ;
114 -> 115 ;
116 [label="gini = 0.5\nsamples = 2\nvalue = [1, 1]"] ;
115 -> 116 ;
117 [label="Age <= 18.5\ngini = 0.444\nsamples = 3\nvalue = [1, 2]"] ;
115 -> 117 ;
118 [label="gini = 0.0\nsamples = 1\nvalue = [0, 1]"] ;
117 -> 118 ;
119 [label="gini = 0.5\nsamples = 2\nvalue = [1, 1]"] ;
117 -> 119 ;
120 [label="Pclass <= 2.5\ngini = 0.165\nsamples = 11\nvalue = [10, 1]"] ;
114 -> 120 ;
121 [label="Age <= 17.5\ngini = 0.444\nsamples = 3\nvalue = [2, 1]"] ;
120 -> 121 ;
122 [label="gini = 0.0\nsamples = 1\nvalue = [1, 0]"] ;
121 -> 122 ;
123 [label="gini = 0.5\nsamples = 2\nvalue = [1, 1]"] ;
121 -> 123 ;
124 [label="gini = 0.0\nsamples = 8\nvalue = [8, 0]"] ;
120 -> 124 ;
125 [label="Fare <= 7.798\ngini = 0.069\nsamples = 56\nvalue = [54, 2]"] ;
111 -> 125 ;
126 [label="Fare <= 7.785\ngini = 0.188\nsamples = 19\nvalue = [17, 2]"] ;
125 -> 126 ;
127 [label="Fare <= 7.196\ngini = 0.117\nsamples = 16\nvalue = [15, 1]"] ;
126 -> 127 ;
128 [label="Fare <= 7.133\ngini = 0.278\nsamples = 6\nvalue = [5, 1]"] ;
127 -> 128 ;
129 [label="gini = 0.0\nsamples = 5\nvalue = [5, 0]"] ;
128 -> 129 ;
130 [label="gini = 0.0\nsamples = 1\nvalue = [0, 1]"] ;
128 -> 130 ;
131 [label="gini = 0.0\nsamples = 10\nvalue = [10, 0]"] ;
127 -> 131 ;
132 [label="Age <= 21.5\ngini = 0.444\nsamples = 3\nvalue = [2, 1]"] ;
126 -> 132 ;
133 [label="gini = 0.0\nsamples = 1\nvalue = [0, 1]"] ;
132 -> 133 ;
134 [label="gini = 0.0\nsamples = 2\nvalue = [2, 0]"] ;
132 -> 134 ;
135 [label="gini = 0.0\nsamples = 37\nvalue = [37, 0]"] ;
125 -> 135 ;
136 [label="Age <= 19.0\ngini = 0.346\nsamples = 9\nvalue = [7, 2]"] ;
110 -> 136 ;
137 [label="gini = 0.0\nsamples = 3\nvalue = [3, 0]"] ;
136 -> 137 ;
138 [label="Age <= 21.0\ngini = 0.444\nsamples = 6\nvalue = [4, 2]"] ;
136 -> 138 ;
139 [label="gini = 0.0\nsamples = 1\nvalue = [0, 1]"] ;
138 -> 139 ;
140 [label="Age <= 25.5\ngini = 0.32\nsamples = 5\nvalue = [4, 1]"] ;
138 -> 140 ;
141 [label="Age <= 23.5\ngini = 0.444\nsamples = 3\nvalue = [2, 1]"] ;
140 -> 141 ;
142 [label="gini = 0.0\nsamples = 1\nvalue = [1, 0]"] ;
141 -> 142 ;
143 [label="gini = 0.5\nsamples = 2\nvalue = [1, 1]"] ;
141 -> 143 ;
144 [label="gini = 0.0\nsamples = 2\nvalue = [2, 0]"] ;
140 -> 144 ;
145 [label="Fare <= 7.846\ngini = 0.375\nsamples = 4\nvalue = [1, 3]"] ;
105 -> 145 ;
146 [label="gini = 0.0\nsamples = 2\nvalue = [0, 2]"] ;
145 -> 146 ;
147 [label="Fare <= 8.279\ngini = 0.5\nsamples = 2\nvalue = [1, 1]"] ;
145 -> 147 ;
148 [label="gini = 0.0\nsamples = 1\nvalue = [1, 0]"] ;
147 -> 148 ;
149 [label="gini = 0.0\nsamples = 1\nvalue = [0, 1]"] ;
147 -> 149 ;
150 [label="Fare <= 8.081\ngini = 0.117\nsamples = 64\nvalue = [60, 4]"] ;
104 -> 150 ;
151 [label="Fare <= 7.785\ngini = 0.037\nsamples = 53\nvalue = [52, 1]"] ;
150 -> 151 ;
152 [label="Fare <= 7.663\ngini = 0.111\nsamples = 17\nvalue = [16, 1]"] ;
151 -> 152 ;
153 [label="gini = 0.0\nsamples = 14\nvalue = [14, 0]"] ;
152 -> 153 ;
154 [label="Age <= 28.5\ngini = 0.444\nsamples = 3\nvalue = [2, 1]"] ;
152 -> 154 ;
155 [label="gini = 0.5\nsamples = 2\nvalue = [1, 1]"] ;
154 -> 155 ;
156 [label="gini = 0.0\nsamples = 1\nvalue = [1, 0]"] ;
154 -> 156 ;
157 [label="gini = 0.0\nsamples = 36\nvalue = [36, 0]"] ;
151 -> 157 ;
158 [label="Fare <= 8.388\ngini = 0.397\nsamples = 11\nvalue = [8, 3]"] ;
150 -> 158 ;
159 [label="gini = 0.0\nsamples = 1\nvalue = [0, 1]"] ;
158 -> 159 ;
160 [label="Age <= 28.5\ngini = 0.32\nsamples = 10\nvalue = [8, 2]"] ;
158 -> 160 ;
161 [label="gini = 0.0\nsamples = 5\nvalue = [5, 0]"] ;
160 -> 161 ;
162 [label="Pclass <= 2.5\ngini = 0.48\nsamples = 5\nvalue = [3, 2]"] ;
160 -> 162 ;
163 [label="gini = 0.0\nsamples = 2\nvalue = [2, 0]"] ;
162 -> 163 ;
164 [label="Fare <= 9.492\ngini = 0.444\nsamples = 3\nvalue = [1, 2]"] ;
162 -> 164 ;
165 [label="gini = 0.0\nsamples = 1\nvalue = [1, 0]"] ;
164 -> 165 ;
166 [label="gini = 0.0\nsamples = 2\nvalue = [0, 2]"] ;
164 -> 166 ;
167 [label="Age <= 27.5\ngini = 0.038\nsamples = 52\nvalue = [51, 1]"] ;
103 -> 167 ;
168 [label="gini = 0.0\nsamples = 32\nvalue = [32, 0]"] ;
167 -> 168 ;
169 [label="Fare <= 13.25\ngini = 0.095\nsamples = 20\nvalue = [19, 1]"] ;
167 -> 169 ;
170 [label="Age <= 29.0\ngini = 0.32\nsamples = 5\nvalue = [4, 1]"] ;
169 -> 170 ;
171 [label="gini = 0.5\nsamples = 2\nvalue = [1, 1]"] ;
170 -> 171 ;
172 [label="gini = 0.0\nsamples = 3\nvalue = [3, 0]"] ;
170 -> 172 ;
173 [label="gini = 0.0\nsamples = 15\nvalue = [15, 0]"] ;
169 -> 173 ;
174 [label="Parch <= 0.5\ngini = 0.287\nsamples = 69\nvalue = [57, 12]"] ;
102 -> 174 ;
175 [label="SibSp <= 1.5\ngini = 0.245\nsamples = 63\nvalue = [54, 9]"] ;
174 -> 175 ;
176 [label="Age <= 22.5\ngini = 0.228\nsamples = 61\nvalue = [53, 8]"] ;
175 -> 176 ;
177 [label="Embarked <= 1.5\ngini = 0.444\nsamples = 6\nvalue = [4, 2]"] ;
176 -> 177 ;
178 [label="Fare <= 5.619\ngini = 0.5\nsamples = 4\nvalue = [2, 2]"] ;
177 -> 178 ;
179 [label="gini = 0.0\nsamples = 1\nvalue = [1, 0]"] ;
178 -> 179 ;
180 [label="Age <= 21.0\ngini = 0.444\nsamples = 3\nvalue = [1, 2]"] ;
178 -> 180 ;
181 [label="gini = 0.0\nsamples = 1\nvalue = [0, 1]"] ;
180 -> 181 ;
182 [label="Fare <= 7.227\ngini = 0.5\nsamples = 2\nvalue = [1, 1]"] ;
180 -> 182 ;
183 [label="gini = 0.0\nsamples = 1\nvalue = [0, 1]"] ;
182 -> 183 ;
184 [label="gini = 0.0\nsamples = 1\nvalue = [1, 0]"] ;
182 -> 184 ;
185 [label="gini = 0.0\nsamples = 2\nvalue = [2, 0]"] ;
177 -> 185 ;
186 [label="Age <= 28.75\ngini = 0.194\nsamples = 55\nvalue = [49, 6]"] ;
176 -> 186 ;
187 [label="Fare <= 17.144\ngini = 0.15\nsamples = 49\nvalue = [45, 4]"] ;
186 -> 187 ;
188 [label="Pclass <= 2.5\ngini = 0.122\nsamples = 46\nvalue = [43, 3]"] ;
187 -> 188 ;
189 [label="Fare <= 14.454\ngini = 0.444\nsamples = 3\nvalue = [2, 1]"] ;
188 -> 189 ;
190 [label="gini = 0.0\nsamples = 1\nvalue = [0, 1]"] ;
189 -> 190 ;
191 [label="gini = 0.0\nsamples = 2\nvalue = [2, 0]"] ;
189 -> 191 ;
192 [label="Fare <= 7.79\ngini = 0.089\nsamples = 43\nvalue = [41, 2]"] ;
188 -> 192 ;
193 [label="Fare <= 7.227\ngini = 0.117\nsamples = 32\nvalue = [30, 2]"] ;
192 -> 193 ;
194 [label="gini = 0.0\nsamples = 8\nvalue = [8, 0]"] ;
193 -> 194 ;
195 [label="Fare <= 7.477\ngini = 0.153\nsamples = 24\nvalue = [22, 2]"] ;
193 -> 195 ;
196 [label="Age <= 25.75\ngini = 0.219\nsamples = 8\nvalue = [7, 1]"] ;
195 -> 196 ;
197 [label="gini = 0.0\nsamples = 1\nvalue = [1, 0]"] ;
196 -> 197 ;
198 [label="Age <= 28.25\ngini = 0.245\nsamples = 7\nvalue = [6, 1]"] ;
196 -> 198 ;
199 [label="gini = 0.278\nsamples = 6\nvalue = [5, 1]"] ;
198 -> 199 ;
200 [label="gini = 0.0\nsamples = 1\nvalue = [1, 0]"] ;
198 -> 200 ;
201 [label="Fare <= 7.746\ngini = 0.117\nsamples = 16\nvalue = [15, 1]"] ;
195 -> 201 ;
202 [label="gini = 0.0\nsamples = 5\nvalue = [5, 0]"] ;
201 -> 202 ;
203 [label="SibSp <= 0.5\ngini = 0.165\nsamples = 11\nvalue = [10, 1]"] ;
201 -> 203 ;
204 [label="gini = 0.18\nsamples = 10\nvalue = [9, 1]"] ;
203 -> 204 ;
205 [label="gini = 0.0\nsamples = 1\nvalue = [1, 0]"] ;
203 -> 205 ;
206 [label="gini = 0.0\nsamples = 11\nvalue = [11, 0]"] ;
192 -> 206 ;
207 [label="Embarked <= 1.5\ngini = 0.444\nsamples = 3\nvalue = [2, 1]"] ;
187 -> 207 ;
208 [label="gini = 0.0\nsamples = 1\nvalue = [0, 1]"] ;
207 -> 208 ;
209 [label="gini = 0.0\nsamples = 2\nvalue = [2, 0]"] ;
207 -> 209 ;
210 [label="Age <= 29.5\ngini = 0.444\nsamples = 6\nvalue = [4, 2]"] ;
186 -> 210 ;
211 [label="SibSp <= 0.5\ngini = 0.444\nsamples = 3\nvalue = [1, 2]"] ;
210 -> 211 ;
212 [label="gini = 0.0\nsamples = 2\nvalue = [0, 2]"] ;
211 -> 212 ;
213 [label="gini = 0.0\nsamples = 1\nvalue = [1, 0]"] ;
211 -> 213 ;
214 [label="gini = 0.0\nsamples = 3\nvalue = [3, 0]"] ;
210 -> 214 ;
215 [label="Embarked <= 1.5\ngini = 0.5\nsamples = 2\nvalue = [1, 1]"] ;
175 -> 215 ;
216 [label="gini = 0.0\nsamples = 1\nvalue = [1, 0]"] ;
215 -> 216 ;
217 [label="gini = 0.0\nsamples = 1\nvalue = [0, 1]"] ;
215 -> 217 ;
218 [label="Fare <= 11.237\ngini = 0.5\nsamples = 6\nvalue = [3, 3]"] ;
174 -> 218 ;
219 [label="gini = 0.0\nsamples = 2\nvalue = [2, 0]"] ;
218 -> 219 ;
220 [label="Pclass <= 2.5\ngini = 0.375\nsamples = 4\nvalue = [1, 3]"] ;
218 -> 220 ;
221 [label="gini = 0.0\nsamples = 1\nvalue = [1, 0]"] ;
220 -> 221 ;
222 [label="gini = 0.0\nsamples = 3\nvalue = [0, 3]"] ;
220 -> 222 ;
223 [label="Embarked <= 0.5\ngini = 0.444\nsamples = 18\nvalue = [12, 6]"] ;
101 -> 223 ;
224 [label="Parch <= 0.5\ngini = 0.48\nsamples = 15\nvalue = [9, 6]"] ;
223 -> 224 ;
225 [label="Fare <= 20.925\ngini = 0.49\nsamples = 14\nvalue = [8, 6]"] ;
224 -> 225 ;
226 [label="Fare <= 8.206\ngini = 0.473\nsamples = 13\nvalue = [8, 5]"] ;
225 -> 226 ;
227 [label="Fare <= 7.815\ngini = 0.5\nsamples = 8\nvalue = [4, 4]"] ;
226 -> 227 ;
228 [label="gini = 0.0\nsamples = 1\nvalue = [1, 0]"] ;
227 -> 228 ;
229 [label="Age <= 31.5\ngini = 0.49\nsamples = 7\nvalue = [3, 4]"] ;
227 -> 229 ;
230 [label="gini = 0.0\nsamples = 1\nvalue = [0, 1]"] ;
229 -> 230 ;
231 [label="Fare <= 7.875\ngini = 0.5\nsamples = 6\nvalue = [3, 3]"] ;
229 -> 231 ;
232 [label="gini = 0.0\nsamples = 1\nvalue = [0, 1]"] ;
231 -> 232 ;
233 [label="Fare <= 7.988\ngini = 0.48\nsamples = 5\nvalue = [3, 2]"] ;
231 -> 233 ;
234 [label="Fare <= 7.91\ngini = 0.375\nsamples = 4\nvalue = [3, 1]"] ;
233 -> 234 ;
235 [label="gini = 0.0\nsamples = 1\nvalue = [1, 0]"] ;
234 -> 235 ;
236 [label="gini = 0.444\nsamples = 3\nvalue = [2, 1]"] ;
234 -> 236 ;
237 [label="gini = 0.0\nsamples = 1\nvalue = [0, 1]"] ;
233 -> 237 ;
238 [label="Fare <= 11.75\ngini = 0.32\nsamples = 5\nvalue = [4, 1]"] ;
226 -> 238 ;
239 [label="gini = 0.0\nsamples = 3\nvalue = [3, 0]"] ;
238 -> 239 ;
240 [label="Age <= 31.5\ngini = 0.5\nsamples = 2\nvalue = [1, 1]"] ;
238 -> 240 ;
241 [label="gini = 0.0\nsamples = 1\nvalue = [0, 1]"] ;
240 -> 241 ;
242 [label="gini = 0.0\nsamples = 1\nvalue = [1, 0]"] ;
240 -> 242 ;
243 [label="gini = 0.0\nsamples = 1\nvalue = [0, 1]"] ;
225 -> 243 ;
244 [label="gini = 0.0\nsamples = 1\nvalue = [1, 0]"] ;
224 -> 244 ;
245 [label="gini = 0.0\nsamples = 3\nvalue = [3, 0]"] ;
223 -> 245 ;
246 [label="Fare <= 7.91\ngini = 0.108\nsamples = 105\nvalue = [99, 6]"] ;
100 -> 246 ;
247 [label="gini = 0.0\nsamples = 32\nvalue = [32, 0]"] ;
246 -> 247 ;
248 [label="Fare <= 7.988\ngini = 0.151\nsamples = 73\nvalue = [67, 6]"] ;
246 -> 248 ;
249 [label="SibSp <= 1.0\ngini = 0.5\nsamples = 4\nvalue = [2, 2]"] ;
248 -> 249 ;
250 [label="Age <= 41.5\ngini = 0.444\nsamples = 3\nvalue = [1, 2]"] ;
249 -> 250 ;
251 [label="gini = 0.5\nsamples = 2\nvalue = [1, 1]"] ;
250 -> 251 ;
252 [label="gini = 0.0\nsamples = 1\nvalue = [0, 1]"] ;
250 -> 252 ;
253 [label="gini = 0.0\nsamples = 1\nvalue = [1, 0]"] ;
249 -> 253 ;
254 [label="Age <= 61.0\ngini = 0.109\nsamples = 69\nvalue = [65, 4]"] ;
248 -> 254 ;
255 [label="Fare <= 13.25\ngini = 0.087\nsamples = 66\nvalue = [63, 3]"] ;
254 -> 255 ;
256 [label="Fare <= 12.938\ngini = 0.157\nsamples = 35\nvalue = [32, 3]"] ;
255 -> 256 ;
257 [label="Age <= 44.5\ngini = 0.08\nsamples = 24\nvalue = [23, 1]"] ;
256 -> 257 ;
258 [label="gini = 0.0\nsamples = 17\nvalue = [17, 0]"] ;
257 -> 258 ;
259 [label="Age <= 46.0\ngini = 0.245\nsamples = 7\nvalue = [6, 1]"] ;
257 -> 259 ;
260 [label="gini = 0.0\nsamples = 1\nvalue = [0, 1]"] ;
259 -> 260 ;
261 [label="gini = 0.0\nsamples = 6\nvalue = [6, 0]"] ;
259 -> 261 ;
262 [label="Age <= 45.0\ngini = 0.298\nsamples = 11\nvalue = [9, 2]"] ;
256 -> 262 ;
263 [label="Age <= 40.5\ngini = 0.375\nsamples = 8\nvalue = [6, 2]"] ;
262 -> 263 ;
264 [label="Age <= 35.0\ngini = 0.278\nsamples = 6\nvalue = [5, 1]"] ;
263 -> 264 ;
265 [label="gini = 0.444\nsamples = 3\nvalue = [2, 1]"] ;
264 -> 265 ;
266 [label="gini = 0.0\nsamples = 3\nvalue = [3, 0]"] ;
264 -> 266 ;
267 [label="gini = 0.5\nsamples = 2\nvalue = [1, 1]"] ;
263 -> 267 ;
268 [label="gini = 0.0\nsamples = 3\nvalue = [3, 0]"] ;
262 -> 268 ;
269 [label="gini = 0.0\nsamples = 31\nvalue = [31, 0]"] ;
255 -> 269 ;
270 [label="Age <= 64.0\ngini = 0.444\nsamples = 3\nvalue = [2, 1]"] ;
254 -> 270 ;
271 [label="gini = 0.0\nsamples = 1\nvalue = [0, 1]"] ;
270 -> 271 ;
272 [label="gini = 0.0\nsamples = 2\nvalue = [2, 0]"] ;
270 -> 272 ;
273 [label="Fare <= 63.023\ngini = 0.43\nsamples = 16\nvalue = [11, 5]"] ;
91 -> 273 ;
274 [label="Age <= 30.0\ngini = 0.408\nsamples = 7\nvalue = [2, 5]"] ;
273 -> 274 ;
275 [label="Age <= 27.0\ngini = 0.48\nsamples = 5\nvalue = [2, 3]"] ;
274 -> 275 ;
276 [label="gini = 0.0\nsamples = 1\nvalue = [0, 1]"] ;
275 -> 276 ;
277 [label="gini = 0.5\nsamples = 4\nvalue = [2, 2]"] ;
275 -> 277 ;
278 [label="gini = 0.0\nsamples = 2\nvalue = [0, 2]"] ;
274 -> 278 ;
279 [label="gini = 0.0\nsamples = 9\nvalue = [9, 0]"] ;
273 -> 279 ;
280 [label="Pclass <= 2.5\ngini = 0.383\nsamples = 314\nvalue = [81, 233]"] ;
0 -> 280 [labeldistance=2.5, labelangle=-45, headlabel="False"] ;
281 [label="Age <= 2.5\ngini = 0.1\nsamples = 170\nvalue = [9, 161]"] ;
280 -> 281 ;
282 [label="Fare <= 88.775\ngini = 0.5\nsamples = 2\nvalue = [1, 1]"] ;
281 -> 282 ;
283 [label="gini = 0.0\nsamples = 1\nvalue = [0, 1]"] ;
282 -> 283 ;
284 [label="gini = 0.0\nsamples = 1\nvalue = [1, 0]"] ;
282 -> 284 ;
285 [label="Fare <= 28.856\ngini = 0.091\nsamples = 168\nvalue = [8, 160]"] ;
281 -> 285 ;
286 [label="Fare <= 28.231\ngini = 0.182\nsamples = 69\nvalue = [7, 62]"] ;
285 -> 286 ;
287 [label="Age <= 56.0\ngini = 0.161\nsamples = 68\nvalue = [6, 62]"] ;
286 -> 287 ;
288 [label="SibSp <= 0.5\ngini = 0.14\nsamples = 66\nvalue = [5, 61]"] ;
287 -> 288 ;
289 [label="Fare <= 13.25\ngini = 0.085\nsamples = 45\nvalue = [2, 43]"] ;
288 -> 289 ;
290 [label="Fare <= 12.825\ngini = 0.147\nsamples = 25\nvalue = [2, 23]"] ;
289 -> 290 ;
291 [label="gini = 0.0\nsamples = 11\nvalue = [0, 11]"] ;
290 -> 291 ;
292 [label="Age <= 26.0\ngini = 0.245\nsamples = 14\nvalue = [2, 12]"] ;
290 -> 292 ;
293 [label="Age <= 21.0\ngini = 0.444\nsamples = 3\nvalue = [1, 2]"] ;
292 -> 293 ;
294 [label="gini = 0.0\nsamples = 1\nvalue = [0, 1]"] ;
293 -> 294 ;
295 [label="gini = 0.5\nsamples = 2\nvalue = [1, 1]"] ;
293 -> 295 ;
296 [label="Age <= 37.0\ngini = 0.165\nsamples = 11\nvalue = [1, 10]"] ;
292 -> 296 ;
297 [label="gini = 0.0\nsamples = 8\nvalue = [0, 8]"] ;
296 -> 297 ;
298 [label="Age <= 39.0\ngini = 0.444\nsamples = 3\nvalue = [1, 2]"] ;
296 -> 298 ;
299 [label="gini = 0.0\nsamples = 1\nvalue = [1, 0]"] ;
298 -> 299 ;
300 [label="gini = 0.0\nsamples = 2\nvalue = [0, 2]"] ;
298 -> 300 ;
301 [label="gini = 0.0\nsamples = 20\nvalue = [0, 20]"] ;
289 -> 301 ;
302 [label="Age <= 25.0\ngini = 0.245\nsamples = 21\nvalue = [3, 18]"] ;
288 -> 302 ;
303 [label="gini = 0.0\nsamples = 6\nvalue = [0, 6]"] ;
302 -> 303 ;
304 [label="Age <= 27.5\ngini = 0.32\nsamples = 15\nvalue = [3, 12]"] ;
302 -> 304 ;
305 [label="Embarked <= 0.5\ngini = 0.444\nsamples = 3\nvalue = [2, 1]"] ;
304 -> 305 ;
306 [label="gini = 0.0\nsamples = 2\nvalue = [2, 0]"] ;
305 -> 306 ;
307 [label="gini = 0.0\nsamples = 1\nvalue = [0, 1]"] ;
305 -> 307 ;
308 [label="Age <= 43.0\ngini = 0.153\nsamples = 12\nvalue = [1, 11]"] ;
304 -> 308 ;
309 [label="gini = 0.0\nsamples = 9\nvalue = [0, 9]"] ;
308 -> 309 ;
310 [label="Age <= 44.5\ngini = 0.444\nsamples = 3\nvalue = [1, 2]"] ;
308 -> 310 ;
311 [label="gini = 0.0\nsamples = 1\nvalue = [1, 0]"] ;
310 -> 311 ;
312 [label="gini = 0.0\nsamples = 2\nvalue = [0, 2]"] ;
310 -> 312 ;
313 [label="Pclass <= 1.5\ngini = 0.5\nsamples = 2\nvalue = [1, 1]"] ;
287 -> 313 ;
314 [label="gini = 0.0\nsamples = 1\nvalue = [0, 1]"] ;
313 -> 314 ;
315 [label="gini = 0.0\nsamples = 1\nvalue = [1, 0]"] ;
313 -> 315 ;
316 [label="gini = 0.0\nsamples = 1\nvalue = [1, 0]"] ;
286 -> 316 ;
317 [label="Parch <= 1.5\ngini = 0.02\nsamples = 99\nvalue = [1, 98]"] ;
285 -> 317 ;
318 [label="gini = 0.0\nsamples = 84\nvalue = [0, 84]"] ;
317 -> 318 ;
319 [label="Age <= 24.5\ngini = 0.124\nsamples = 15\nvalue = [1, 14]"] ;
317 -> 319 ;
320 [label="gini = 0.0\nsamples = 10\nvalue = [0, 10]"] ;
319 -> 320 ;
321 [label="Age <= 28.0\ngini = 0.32\nsamples = 5\nvalue = [1, 4]"] ;
319 -> 321 ;
322 [label="gini = 0.0\nsamples = 1\nvalue = [1, 0]"] ;
321 -> 322 ;
323 [label="gini = 0.0\nsamples = 4\nvalue = [0, 4]"] ;
321 -> 323 ;
324 [label="Fare <= 23.35\ngini = 0.5\nsamples = 144\nvalue = [72, 72]"] ;
280 -> 324 ;
325 [label="Age <= 36.5\ngini = 0.484\nsamples = 117\nvalue = [48, 69]"] ;
324 -> 325 ;
326 [label="Embarked <= 0.5\ngini = 0.472\nsamples = 110\nvalue = [42, 68]"] ;
325 -> 326 ;
327 [label="Fare <= 10.825\ngini = 0.499\nsamples = 57\nvalue = [27, 30]"] ;
326 -> 327 ;
328 [label="Fare <= 7.763\ngini = 0.489\nsamples = 33\nvalue = [19, 14]"] ;
327 -> 328 ;
329 [label="Age <= 25.5\ngini = 0.278\nsamples = 6\nvalue = [1, 5]"] ;
328 -> 329 ;
330 [label="gini = 0.0\nsamples = 5\nvalue = [0, 5]"] ;
329 -> 330 ;
331 [label="gini = 0.0\nsamples = 1\nvalue = [1, 0]"] ;
329 -> 331 ;
332 [label="Age <= 19.5\ngini = 0.444\nsamples = 27\nvalue = [18, 9]"] ;
328 -> 332 ;
333 [label="Age <= 15.5\ngini = 0.49\nsamples = 7\nvalue = [3, 4]"] ;
332 -> 333 ;
334 [label="gini = 0.0\nsamples = 2\nvalue = [2, 0]"] ;
333 -> 334 ;
335 [label="Fare <= 7.815\ngini = 0.32\nsamples = 5\nvalue = [1, 4]"] ;
333 -> 335 ;
336 [label="gini = 0.0\nsamples = 1\nvalue = [1, 0]"] ;
335 -> 336 ;
337 [label="gini = 0.0\nsamples = 4\nvalue = [0, 4]"] ;
335 -> 337 ;
338 [label="Fare <= 7.988\ngini = 0.375\nsamples = 20\nvalue = [15, 5]"] ;
332 -> 338 ;
339 [label="Age <= 27.5\ngini = 0.494\nsamples = 9\nvalue = [5, 4]"] ;
338 -> 339 ;
340 [label="Age <= 25.5\ngini = 0.49\nsamples = 7\nvalue = [3, 4]"] ;
339 -> 340 ;
341 [label="Age <= 22.5\ngini = 0.375\nsamples = 4\nvalue = [3, 1]"] ;
340 -> 341 ;
342 [label="gini = 0.0\nsamples = 1\nvalue = [0, 1]"] ;
341 -> 342 ;
343 [label="gini = 0.0\nsamples = 3\nvalue = [3, 0]"] ;
341 -> 343 ;
344 [label="gini = 0.0\nsamples = 3\nvalue = [0, 3]"] ;
340 -> 344 ;
345 [label="gini = 0.0\nsamples = 2\nvalue = [2, 0]"] ;
339 -> 345 ;
346 [label="Age <= 30.5\ngini = 0.165\nsamples = 11\nvalue = [10, 1]"] ;
338 -> 346 ;
347 [label="gini = 0.0\nsamples = 10\nvalue = [10, 0]"] ;
346 -> 347 ;
348 [label="gini = 0.0\nsamples = 1\nvalue = [0, 1]"] ;
346 -> 348 ;
349 [label="Fare <= 17.6\ngini = 0.444\nsamples = 24\nvalue = [8, 16]"] ;
327 -> 349 ;
350 [label="Fare <= 13.438\ngini = 0.231\nsamples = 15\nvalue = [2, 13]"] ;
349 -> 350 ;
351 [label="gini = 0.0\nsamples = 6\nvalue = [0, 6]"] ;
350 -> 351 ;
352 [label="Fare <= 15.125\ngini = 0.346\nsamples = 9\nvalue = [2, 7]"] ;
350 -> 352 ;
353 [label="gini = 0.0\nsamples = 1\nvalue = [1, 0]"] ;
352 -> 353 ;
354 [label="Age <= 27.0\ngini = 0.219\nsamples = 8\nvalue = [1, 7]"] ;
352 -> 354 ;
355 [label="Age <= 25.0\ngini = 0.375\nsamples = 4\nvalue = [1, 3]"] ;
354 -> 355 ;
356 [label="gini = 0.0\nsamples = 3\nvalue = [0, 3]"] ;
355 -> 356 ;
357 [label="gini = 0.0\nsamples = 1\nvalue = [1, 0]"] ;
355 -> 357 ;
358 [label="gini = 0.0\nsamples = 4\nvalue = [0, 4]"] ;
354 -> 358 ;
359 [label="Parch <= 0.5\ngini = 0.444\nsamples = 9\nvalue = [6, 3]"] ;
349 -> 359 ;
360 [label="gini = 0.0\nsamples = 3\nvalue = [3, 0]"] ;
359 -> 360 ;
361 [label="SibSp <= 2.0\ngini = 0.5\nsamples = 6\nvalue = [3, 3]"] ;
359 -> 361 ;
362 [label="Parch <= 3.0\ngini = 0.375\nsamples = 4\nvalue = [1, 3]"] ;
361 -> 362 ;
363 [label="gini = 0.0\nsamples = 3\nvalue = [0, 3]"] ;
362 -> 363 ;
364 [label="gini = 0.0\nsamples = 1\nvalue = [1, 0]"] ;
362 -> 364 ;
365 [label="gini = 0.0\nsamples = 2\nvalue = [2, 0]"] ;
361 -> 365 ;
366 [label="Age <= 29.75\ngini = 0.406\nsamples = 53\nvalue = [15, 38]"] ;
326 -> 366 ;
367 [label="Fare <= 15.373\ngini = 0.38\nsamples = 51\nvalue = [13, 38]"] ;
366 -> 367 ;
368 [label="Fare <= 13.935\ngini = 0.439\nsamples = 40\nvalue = [13, 27]"] ;
367 -> 368 ;
369 [label="Fare <= 6.987\ngini = 0.312\nsamples = 31\nvalue = [6, 25]"] ;
368 -> 369 ;
370 [label="gini = 0.0\nsamples = 1\nvalue = [1, 0]"] ;
369 -> 370 ;
371 [label="Parch <= 1.5\ngini = 0.278\nsamples = 30\nvalue = [5, 25]"] ;
369 -> 371 ;
372 [label="Age <= 20.0\ngini = 0.238\nsamples = 29\nvalue = [4, 25]"] ;
371 -> 372 ;
373 [label="gini = 0.0\nsamples = 8\nvalue = [0, 8]"] ;
372 -> 373 ;
374 [label="Age <= 21.5\ngini = 0.308\nsamples = 21\nvalue = [4, 17]"] ;
372 -> 374 ;
375 [label="gini = 0.0\nsamples = 1\nvalue = [1, 0]"] ;
374 -> 375 ;
376 [label="Fare <= 8.008\ngini = 0.255\nsamples = 20\nvalue = [3, 17]"] ;
374 -> 376 ;
377 [label="Fare <= 7.681\ngini = 0.188\nsamples = 19\nvalue = [2, 17]"] ;
376 -> 377 ;
378 [label="Embarked <= 1.5\ngini = 0.444\nsamples = 3\nvalue = [1, 2]"] ;
377 -> 378 ;
379 [label="gini = 0.0\nsamples = 2\nvalue = [0, 2]"] ;
378 -> 379 ;
380 [label="gini = 0.0\nsamples = 1\nvalue = [1, 0]"] ;
378 -> 380 ;
381 [label="Fare <= 7.769\ngini = 0.117\nsamples = 16\nvalue = [1, 15]"] ;
377 -> 381 ;
382 [label="Fare <= 7.744\ngini = 0.165\nsamples = 11\nvalue = [1, 10]"] ;
381 -> 382 ;
383 [label="gini = 0.0\nsamples = 2\nvalue = [0, 2]"] ;
382 -> 383 ;
384 [label="Age <= 25.0\ngini = 0.198\nsamples = 9\nvalue = [1, 8]"] ;
382 -> 384 ;
385 [label="gini = 0.0\nsamples = 1\nvalue = [0, 1]"] ;
384 -> 385 ;
386 [label="gini = 0.219\nsamples = 8\nvalue = [1, 7]"] ;
384 -> 386 ;
387 [label="gini = 0.0\nsamples = 5\nvalue = [0, 5]"] ;
381 -> 387 ;
388 [label="gini = 0.0\nsamples = 1\nvalue = [1, 0]"] ;
376 -> 388 ;
389 [label="gini = 0.0\nsamples = 1\nvalue = [1, 0]"] ;
371 -> 389 ;
390 [label="Age <= 28.5\ngini = 0.346\nsamples = 9\nvalue = [7, 2]"] ;
368 -> 390 ;
391 [label="Age <= 16.0\ngini = 0.219\nsamples = 8\nvalue = [7, 1]"] ;
390 -> 391 ;
392 [label="Age <= 14.75\ngini = 0.444\nsamples = 3\nvalue = [2, 1]"] ;
391 -> 392 ;
393 [label="gini = 0.0\nsamples = 2\nvalue = [2, 0]"] ;
392 -> 393 ;
394 [label="gini = 0.0\nsamples = 1\nvalue = [0, 1]"] ;
392 -> 394 ;
395 [label="gini = 0.0\nsamples = 5\nvalue = [5, 0]"] ;
391 -> 395 ;
396 [label="gini = 0.0\nsamples = 1\nvalue = [0, 1]"] ;
390 -> 396 ;
397 [label="gini = 0.0\nsamples = 11\nvalue = [0, 11]"] ;
367 -> 397 ;
398 [label="gini = 0.0\nsamples = 2\nvalue = [2, 0]"] ;
366 -> 398 ;
399 [label="Age <= 55.0\ngini = 0.245\nsamples = 7\nvalue = [6, 1]"] ;
325 -> 399 ;
400 [label="gini = 0.0\nsamples = 6\nvalue = [6, 0]"] ;
399 -> 400 ;
401 [label="gini = 0.0\nsamples = 1\nvalue = [0, 1]"] ;
399 -> 401 ;
402 [label="Parch <= 0.5\ngini = 0.198\nsamples = 27\nvalue = [24, 3]"] ;
324 -> 402 ;
403 [label="gini = 0.0\nsamples = 1\nvalue = [0, 1]"] ;
402 -> 403 ;
404 [label="Age <= 5.5\ngini = 0.142\nsamples = 26\nvalue = [24, 2]"] ;
402 -> 404 ;
405 [label="Fare <= 31.331\ngini = 0.444\nsamples = 3\nvalue = [2, 1]"] ;
404 -> 405 ;
406 [label="gini = 0.0\nsamples = 2\nvalue = [2, 0]"] ;
405 -> 406 ;
407 [label="gini = 0.0\nsamples = 1\nvalue = [0, 1]"] ;
405 -> 407 ;
408 [label="Parch <= 4.5\ngini = 0.083\nsamples = 23\nvalue = [22, 1]"] ;
404 -> 408 ;
409 [label="gini = 0.0\nsamples = 18\nvalue = [18, 0]"] ;
408 -> 409 ;
410 [label="Age <= 38.5\ngini = 0.32\nsamples = 5\nvalue = [4, 1]"] ;
408 -> 410 ;
411 [label="gini = 0.0\nsamples = 1\nvalue = [0, 1]"] ;
410 -> 411 ;
412 [label="gini = 0.0\nsamples = 4\nvalue = [4, 0]"] ;
410 -> 412 ;
}